{"layers":[{"neurons":[{"weights":[0.191974672328223],"bias":-0.9561079265958874,"activation":"Tanh"},{"weights":[-0.19041591769961858],"bias":0.13261256448745654,"activation":"Tanh"},{"weights":[-0.18525890144580698],"bias":1.29349412939286,"activation":"Tanh"},{"weights":[-0.9429942271525003],"bias":-0.9438071555959275,"activation":"Tanh"},{"weights":[-0.6891636738628303],"bias":-0.8475453279916647,"activation":"Tanh"},{"weights":[-0.22397512196244163],"bias":0.8689367903411342,"activation":"Tanh"},{"weights":[0.6329345884915472],"bias":0.7558234966632122,"activation":"Tanh"},{"weights":[0.18183456461338193],"bias":0.28445256210781683,"activation":"Tanh"},{"weights":[-0.7699619830738968],"bias":0.9422568137356776,"activation":"Tanh"},{"weights":[0.4780174544140518],"bias":0.4566510070310835,"activation":"Tanh"},{"weights":[-0.7428027624228958],"bias":0.1380648754473992,"activation":"Tanh"},{"weights":[-0.8384826787553268],"bias":0.5811678845699217,"activation":"Tanh"},{"weights":[-0.3297905805505708],"bias":0.6726548121300115,"activation":"Tanh"},{"weights":[0.40723513529364],"bias":-1.3358931741799978,"activation":"Tanh"},{"weights":[-0.23989529253913297],"bias":0.4227597486772727,"activation":"Tanh"},{"weights":[-0.11620384086255964],"bias":-0.15709215265743331,"activation":"Tanh"},{"weights":[0.06383759254460258],"bias":-0.4457276957895919,"activation":"Tanh"},{"weights":[0.2453401817611353],"bias":0.861956242440919,"activation":"Tanh"},{"weights":[0.8177089052397639],"bias":0.5910484946940823,"activation":"Tanh"},{"weights":[-0.7594726339123564],"bias":-0.6242269155425509,"activation":"Tanh"}]},{"neurons":[{"weights":[-0.9159656058366221,-0.38650373680684996,-0.9433817679506656,0.41527035755784353,0.6425617177079156,-0.6064096699520474,-0.08197288021966162,0.6132299573712502,0.5900707801060323,-0.5779310395663683,0.38600454442609533,0.8625658186036692,-0.26863752757592874,-0.25905514260033446,0.3934782374124446,-0.4192833356697243,0.8148345880139558,-0.2642906089640724,-0.9700286543799644,-0.1076554180202891],"bias":0.9348318987738417,"activation":"Tanh"},{"weights":[0.3335362034596247,-0.17113999843714783,0.5569408369154252,-0.17950724274123145,-0.5052136446997599,-0.8022497761291904,-0.7215055754165185,-0.2579005685935487,-0.07527712713416647,-0.6675830262173523,0.8787021136369727,-0.11785646197680985,0.009056338782520077,0.9000367269622729,-1.0693638122738696,0.45550243880422847,0.241495536265255,0.6857242988123152,-0.6812204837579917,-0.005840599683865227],"bias":0.06897790923697901,"activation":"Tanh"},{"weights":[0.9189530553036868,0.5715434538767741,0.7318573930295048,-0.877193042198485,-0.3714642005829835,-0.08942742645503571,0.5233819271403078,-0.1947317717984128,-0.9889804464890991,-0.9720621121197899,0.6081089695103404,-0.6574066454354622,-0.3753077623057177,-0.7737710169755186,-0.14581188405661807,-0.8401624232958993,-0.28622230360943113,0.36373219341990276,0.2099768028305513,0.8137580994560276],"bias":-0.06381721199328101,"activation":"Tanh"},{"weights":[0.22194443895892432,-0.0721193443967285,-0.8410481430213885,0.7145455929458134,0.848792807022226,0.6388834391605737,-0.17049156719944297,0.03468644826345302,-0.8098334636375093,0.6992112077179045,0.1413767721106214,0.043512204685790354,-0.5377941010614353,0.5215030530121941,-0.842949313604166,0.09685490124442755,0.2320924287436271,-0.044009133004562745,0.7281093130296705,-0.38809242985887893],"bias":-0.9045195789796422,"activation":"Tanh"},{"weights":[0.8402505638080296,0.4111582338248903,0.2176817589929942,0.013712852095024135,-0.6737963376372114,0.002209835679487919,-0.07973571823968376,-0.8286995395234174,0.2818665574227814,-0.3619207330103871,0.6946855929228228,0.34605885724576,-0.46626890406236865,-0.09319482705684211,-0.3736331373245022,0.2307114729298443,0.10778224056363442,0.37099628794525735,0.06871458909633055,-0.27860890008255124],"bias":-0.8620089887859723,"activation":"Tanh"},{"weights":[-0.8337097378005239,0.8377439747506328,0.9746314587703223,-0.03206442423374242,-0.8601983300103789,1.0067648575328239,0.5499049069529619,-0.8879399146320867,-0.7716133172364339,0.2197559728669599,-0.5158682821083854,0.4794498303093423,0.5957574238986046,-0.32813085001759396,1.0045885718019647,0.6631255242685073,0.4862122259428138,0.8150553488179223,0.816349439286114,-0.3584208915286675],"bias":-0.32350327921207617,"activation":"Tanh"},{"weights":[0.7041290253747697,0.9778481624459728,0.1637812043057188,0.333698687893089,0.3324326892155394,-0.04533295027684483,-0.17761717856763679,-0.3400190189876575,0.41668704554084873,0.07847509793846855,-0.6597533036096458,0.7117884432910034,-0.21639917264563766,0.24418933849171168,-0.4677136121212875,0.7604535697618738,0.8856908881000641,-0.5468585999751473,0.5503517946342062,-0.05727527793106566],"bias":-0.3758070819287192,"activation":"Tanh"},{"weights":[0.049583172654425925,-0.7131817237980393,-0.8613939195648689,-0.19020227910467394,-1.0068502742726588,0.38004726415277473,0.48474418489659593,-0.28607671025031906,-0.9163679401826849,-0.5956961211876091,0.6888986295014783,-0.3016981126786515,0.8560294599638992,0.19229895656175774,-0.558654771439646,-0.6912917697504785,-0.8307554215508486,0.5797305948247614,0.5702874912234301,0.17819906216678136],"bias":-0.9265784692231713,"activation":"Tanh"},{"weights":[-0.4033830228215549,-0.3853698110022148,0.29168757082006613,-0.854098573495627,-0.8136567616499124,-0.08896774995604516,1.05932448868752,0.9361744870955371,0.62296725446494,0.4741959124629691,0.23551426527829183,0.5858917617806138,0.3771491410033922,-0.14417737705182188,-0.06096063698852694,0.26053212443451723,-0.8689827544094418,-0.16968379319964527,-0.12377631394935137,0.7675233713752151],"bias":-0.4822056519515504,"activation":"Tanh"},{"weights":[-1.028516570009257,0.5297735975835713,0.26897397802772427,-0.1227134219110418,0.7279501346271194,0.3584588153805217,0.751344020629907,0.0027025746514561153,0.37294441702815695,0.08198618279795276,-0.49983697899060503,0.26221023887914247,0.04028612964715775,-0.29848218752595146,0.14900070904503374,0.9520293355390742,-0.29133805312580674,-0.2986192406332204,-0.6286384670390686,0.5540551509402083],"bias":-0.3756781718850099,"activation":"Tanh"},{"weights":[-0.4368184379094669,0.1664009839338715,0.9728384711002973,0.2004233070487115,0.17502379614935756,0.4449829903047976,0.43974272019110267,0.3067873662482808,0.3658747940179119,0.4583570432714789,-0.6089952800641548,-0.958731765211275,0.7631433394399234,-0.8017782364665369,-0.14893527653850208,0.3246215347900367,-0.03350096010004802,-0.1747889006248118,0.842364438285818,-0.013451092677125579],"bias":-0.5309692704375645,"activation":"Tanh"},{"weights":[0.877094701988582,-0.6080309136876753,0.7351063858169188,-0.2781073883476451,0.9254634026728975,-0.7417298892284151,0.165306851969729,-0.7798602217314222,-0.36830677326233924,-0.20569619927674926,0.08560918710099275,0.3711179666413151,-0.4108061318169804,0.5856753860649286,-0.4144201440191016,0.909299856517237,1.0575972906034,0.5328476423328856,0.2622763979081359,0.061347530853023004],"bias":0.45968350473173825,"activation":"Tanh"},{"weights":[0.21000657275684437,-0.30664551251241334,0.5736177794396857,0.22146639652331385,0.31995431467750624,0.9776342728219062,0.45266327080602525,-0.30943454198254305,0.9538615088268108,-0.40623741507217187,0.2830544728195217,0.9060688407488697,0.23092257587845655,0.7310401647689333,-0.6329241955167135,-0.3983341551336162,0.7430985297274985,-0.33224873326304966,-0.07682499235843476,-0.9640387675369688],"bias":-0.48619678613501827,"activation":"Tanh"},{"weights":[0.48895308856808967,0.5417492148819575,-0.8300954331295716,-0.8256246845526138,0.41552505293914843,0.017808604696481226,0.9768615309258126,-0.531903958129636,-0.36416811811680655,-1.0126637937006933,-0.12686110034202233,0.9207765676167207,0.9792555912881449,-0.6646109810097262,0.19710333915962783,-0.5793867490526855,0.7194829696342798,0.2200572029551405,-0.2004988402976038,-0.22558928324575642],"bias":0.948988531372638,"activation":"Tanh"},{"weights":[0.9685974571386748,-0.9191770572781869,0.7100553347283933,-0.9111196107390338,0.7828624292166975,-0.914195881329784,-0.7783397363754349,-0.34468263926518866,-0.15454305113430758,-0.019030397938028132,-0.10208567885462544,-0.22663279569777145,0.0667284736520452,-0.04653935500092559,0.9216349461654307,-0.11087131113388833,0.41152814748996697,-0.9745040844281969,0.5259178663653707,-0.5451502187861236],"bias":-0.4561427415738768,"activation":"Tanh"},{"weights":[0.3131062680078452,-0.46714542914142315,-0.05028128475091724,0.9254767796065527,0.6614349467147498,0.8802395478694318,-0.35219690606616944,-0.7612685130575485,-0.01213113037848695,0.8517468505749266,-0.41285066387590547,0.9894004368968259,0.1800669576587372,0.08343106920749202,-0.6055898674757035,0.1464545240386748,-0.8457957175149372,-0.9425687160601536,-0.5534041155514714,-0.631202915804048],"bias":0.3568263038563073,"activation":"Tanh"},{"weights":[0.018960072153219924,0.05358839018823223,0.06742765177527588,-0.06786885614132475,-0.27893791948850155,0.44733408748080083,0.011192672712772151,0.11724076030265111,-0.7029679839957234,-0.5728134781208306,0.028044376420978862,0.7955173240051044,0.13865832128639682,0.04620746490718005,0.4060532070886135,-0.416962174730951,-0.9320913880799958,-0.5761114019928425,0.9197927734492903,-0.9941280438683372],"bias":-0.4912600930880611,"activation":"Tanh"},{"weights":[-0.46492014222721606,-0.17948893038656774,-0.9540529575855635,-0.5516918139839319,0.6024614881106316,-0.15950784643397198,-0.3058477918284796,0.01179482131321429,-0.7298643555270197,-0.4234057677798881,-1.0013722818766007,0.1955756883868487,0.2293498342031705,0.7591030788532942,0.11188168563399892,0.44151179217384534,0.0882031895360872,-0.6154636943958622,-0.4219366736578555,-0.34180241855709637],"bias":0.6372039184150663,"activation":"Tanh"},{"weights":[-0.9997018852934536,-0.5782117488948367,-0.6742632872876603,0.4057535036134563,-0.405017630211976,0.6801380943521238,0.4814711033708812,0.301554404440856,0.16114079886443164,-0.12351600602272757,0.37592296369277534,0.08821781422860911,0.46068657440923594,0.8569183660233394,0.570022100883864,0.6217130850246757,-0.6388665801324288,0.11147834545665289,-0.10516940360710818,0.12709981388749786],"bias":-0.010924667488759775,"activation":"Tanh"},{"weights":[-0.22921814235716056,0.701382008643873,0.6286311992967063,0.8459405520827198,-0.575601700517487,-0.520059165573728,0.0701183162263489,-0.4589828038550789,0.6562124550268393,0.7773651325259733,-0.4601164297491743,-0.29118063381690945,-0.5327675995181779,0.5075606783679588,-0.35615259806015837,-0.5325741015356369,-0.4623641269428945,0.5042712585749313,0.2690768257286529,-0.8368161811472442],"bias":0.15150407591642576,"activation":"Tanh"}]},{"neurons":[{"weights":[-0.16134379979908492,0.6240451935116152,-0.15325788199348045,-0.5224883660827073,-0.20451316972179617,-1.5139870652917449,-0.6783202911061876,0.2488834482240631,-0.6062601623910249,-0.704114713778462,0.8215665600356974,-0.9418729038273038,-0.02486613082156006,0.5051063984390786,0.16025729392686808,-0.5333197268056263,-0.5699675583545848,-0.4322201921620024,0.11809420523252182,0.25399550105967583],"bias":-0.596326001509264,"activation":"Identity"}]}],"loss_fn":"MeanSquaredError"}